Language model created by QuickLM on Fri Jul 12 07:02:10 EDT 2019
Copyright (c) 1996-2010 Carnegie Mellon University and Alexander I. Rudnicky

The model is in standard ARPA format, designed by Doug Paul while he was at MITRE.

The code that was used to produce this language model is available in Open Source.
Please visit http://www.speech.cs.cmu.edu/tools/ for more information

The (fixed) discount mass is 0.5. The backoffs are computed using the ratio method.
This model based on a corpus of 545 sentences and 118 words

\data\
ngram 1=118
ngram 2=225
ngram 3=116

\1-grams:
-0.7873 </s> -0.3010
-0.7873 <s> -0.2237
-2.8248 AADHA -0.2237
-2.8248 AATH -0.2237
-2.8248 AFTERNOOON -0.2237
-2.8248 AGRICULTURAL -0.2237
-2.8248 ANDHERI -0.2237
-2.8248 AREA -0.2237
-2.8248 BARODA -0.2237
-2.8248 BHK -0.2237
-2.8248 BUNGALOW -0.2237
-2.8248 CAR -0.2237
-2.8248 CARPET -0.2237
-2.8248 CC -0.2237
-2.8248 CENTRAL -0.2237
-2.8248 CHAR -0.2237
-2.8248 CHEH -0.2237
-2.8248 CHEMBUR -0.2237
-2.8248 CONSULTANTS -0.2237
-2.8248 CRORE -0.2237
-2.8248 DAS -0.2237
-2.8248 DHANYAWAD -0.2237
-2.8248 DO -0.2237
-2.8248 EAST -0.2237
-2.8248 EIGHT -0.2237
-2.8248 EIGHTEEN -0.2237
-2.8248 EIGHTY -0.2237
-2.8248 EK -0.2237
-2.8248 ELEVEN -0.2237
-2.8248 ESTATE -0.2237
-2.8248 EVENING -0.2237
-2.8248 FACING -0.2237
-2.8248 FIFTEEN -0.2237
-2.8248 FIFTY -0.2237
-2.8248 FIVE -0.2237
-2.8248 FLAT -0.2237
-2.8248 FLOORS -0.2237
-2.8248 FOLLOWUP -0.2237
-2.8248 FORTY -0.2237
-2.8248 FOUR -0.2237
-2.8248 FOURTEEN -0.2237
-2.8248 GHANTA -0.2237
-2.8248 GOOD -0.2237
-2.8248 GOREGAON -0.2237
-2.8248 GUNTHA -0.2237
-2.8248 GYM -0.2237
-2.8248 HARBOUR -0.2237
-2.8248 HAZAAR -0.2237
-2.8248 IN -0.2237
-2.8248 JODI -0.3004
-2.8248 KAROD -0.2237
-2.8248 KATRAJ -0.2237
-2.8248 LAAKH -0.2237
-2.8248 LAKHS -0.2237
-2.8248 MANDIR -0.2237
-2.8248 MATUNGA -0.2237
-2.8248 MORNING -0.2237
-2.8248 MOVE -0.3004
-2.8248 MULTIPLE -0.2237
-2.8248 NAMASKAR -0.2237
-2.8248 NAMASTE -0.2237
-2.8248 NAPLOT -0.2237
-2.8248 NIGHT -0.2237
-2.8248 NINE -0.2237
-2.8248 NINETEEN -0.2237
-2.8248 NINETY -0.2237
-2.8248 NORTH -0.2237
-2.8248 OC -0.2237
-2.8248 ONE -0.2237
-2.8248 PANCH -0.2237
-2.8248 PARKING -0.2237
-2.8248 PAUNE -0.2237
-2.8248 PER -0.3004
-2.8248 PLOT -0.2237
-2.8248 PLOTS -0.2237
-2.8248 POOL -0.2237
-2.8248 PRIVATE -0.2237
-2.8248 PUNE -0.2237
-2.8248 RAM -0.3004
-2.8248 RATE -0.2237
-2.8248 READY -0.3004
-2.8248 SAAT -0.2237
-2.8248 SAI -0.2237
-2.8248 SALEABLE -0.2237
-2.8248 SAMAY -0.2237
-2.8248 SAVA -0.2237
-2.8248 SCHEDULE -0.2237
-2.8248 SEVEN -0.2237
-2.8248 SEVENTEEN -0.2237
-2.8248 SEVENTY -0.2237
-2.8248 SION -0.2237
-2.8248 SITE -0.2237
-2.8248 SIX -0.2237
-2.8248 SIXTEEN -0.2237
-2.8248 SIXTY -0.2237
-2.8248 SOUTH -0.2237
-2.8248 SQUARE -0.3004
-2.8248 SURAT -0.2237
-2.8248 SWIMMING -0.2237
-2.8248 TEEN -0.2237
-2.8248 TEN -0.2237
-2.8248 THANE -0.2237
-2.8248 THIRTEEN -0.2237
-2.8248 THIRTY -0.2237
-2.8248 THOUSAND -0.2237
-2.8248 THREE -0.2237
-2.8248 TO -0.3004
-2.8248 TWELVE -0.2237
-2.8248 TWENTY -0.2237
-2.8248 TWO -0.2237
-2.8248 UNDERCONSTRUCTION -0.2237
-2.8248 VADODARA -0.2237
-2.8248 VASHI -0.2237
-2.8248 VERSOVA -0.2237
-2.8248 VILLA -0.2237
-2.8248 VISIT -0.2237
-2.8248 WEST -0.2237
-2.8248 WESTERN -0.2237

\2-grams:
-2.3385 <s> AADHA 0.0000
-2.3385 <s> AATH 0.0000
-2.3385 <s> AFTERNOOON 0.0000
-2.3385 <s> AGRICULTURAL 0.0000
-2.3385 <s> ANDHERI 0.0000
-2.3385 <s> AREA 0.0000
-2.3385 <s> BARODA 0.0000
-2.3385 <s> BHK 0.0000
-2.3385 <s> BUNGALOW 0.0000
-2.3385 <s> CAR 0.0000
-2.3385 <s> CARPET 0.0000
-2.3385 <s> CC 0.0000
-2.3385 <s> CENTRAL 0.0000
-2.3385 <s> CHAR 0.0000
-2.3385 <s> CHEH 0.0000
-2.3385 <s> CHEMBUR 0.0000
-2.3385 <s> CONSULTANTS 0.0000
-2.3385 <s> CRORE 0.0000
-2.3385 <s> DAS 0.0000
-2.3385 <s> DHANYAWAD 0.0000
-2.3385 <s> DO 0.0000
-2.3385 <s> EAST 0.0000
-2.3385 <s> EIGHT 0.0000
-2.3385 <s> EIGHTEEN 0.0000
-2.3385 <s> EIGHTY 0.0000
-2.3385 <s> EK 0.0000
-2.3385 <s> ELEVEN 0.0000
-2.3385 <s> ESTATE 0.0000
-2.3385 <s> EVENING 0.0000
-2.3385 <s> FACING 0.0000
-2.3385 <s> FIFTEEN 0.0000
-2.3385 <s> FIFTY 0.0000
-2.3385 <s> FIVE 0.0000
-2.3385 <s> FLOORS 0.0000
-2.3385 <s> FOLLOWUP 0.0000
-2.3385 <s> FORTY 0.0000
-2.3385 <s> FOUR 0.0000
-2.3385 <s> FOURTEEN 0.0000
-2.3385 <s> GHANTA 0.0000
-2.3385 <s> GOOD 0.0000
-2.3385 <s> GOREGAON 0.0000
-2.3385 <s> GUNTHA 0.0000
-2.3385 <s> GYM 0.0000
-2.3385 <s> HARBOUR 0.0000
-2.3385 <s> HAZAAR 0.0000
-2.3385 <s> JODI 0.0000
-2.3385 <s> KAROD 0.0000
-2.3385 <s> KATRAJ 0.0000
-2.3385 <s> LAAKH 0.0000
-2.3385 <s> LAKHS 0.0000
-2.3385 <s> MATUNGA 0.0000
-2.3385 <s> MORNING 0.0000
-2.3385 <s> MULTIPLE 0.0000
-2.3385 <s> NAMASKAR 0.0000
-2.3385 <s> NAMASTE 0.0000
-2.3385 <s> NAPLOT 0.0000
-2.3385 <s> NIGHT 0.0000
-2.3385 <s> NINE 0.0000
-2.3385 <s> NINETEEN 0.0000
-2.3385 <s> NINETY 0.0000
-2.3385 <s> NORTH 0.0000
-2.3385 <s> OC 0.0000
-2.3385 <s> ONE 0.0000
-2.3385 <s> PANCH 0.0000
-2.3385 <s> PARKING 0.0000
-2.3385 <s> PAUNE 0.0000
-2.3385 <s> PER 0.0000
-2.3385 <s> PLOT 0.0000
-2.3385 <s> PLOTS 0.0000
-2.3385 <s> POOL 0.0000
-2.3385 <s> PRIVATE 0.0000
-2.3385 <s> PUNE 0.0000
-2.3385 <s> RAM 0.0000
-2.3385 <s> READY 0.0000
-2.3385 <s> SAAT 0.0000
-2.3385 <s> SAI 0.0000
-2.3385 <s> SALEABLE 0.0000
-2.3385 <s> SAMAY 0.0000
-2.3385 <s> SAVA 0.0000
-2.3385 <s> SCHEDULE 0.0000
-2.3385 <s> SEVEN 0.0000
-2.3385 <s> SEVENTEEN 0.0000
-2.3385 <s> SEVENTY 0.0000
-2.3385 <s> SION 0.0000
-2.3385 <s> SITE 0.0000
-2.3385 <s> SIX 0.0000
-2.3385 <s> SIXTEEN 0.0000
-2.3385 <s> SIXTY 0.0000
-2.3385 <s> SOUTH 0.0000
-2.3385 <s> SURAT 0.0000
-2.3385 <s> SWIMMING 0.0000
-2.3385 <s> TEEN 0.0000
-2.3385 <s> TEN 0.0000
-2.3385 <s> THANE 0.0000
-2.3385 <s> THIRTEEN 0.0000
-2.3385 <s> THIRTY 0.0000
-2.3385 <s> THOUSAND 0.0000
-2.3385 <s> THREE 0.0000
-2.3385 <s> TWELVE 0.0000
-2.3385 <s> TWENTY 0.0000
-2.3385 <s> TWO 0.0000
-2.3385 <s> UNDERCONSTRUCTION 0.0000
-2.3385 <s> VADODARA 0.0000
-2.3385 <s> VASHI 0.0000
-2.3385 <s> VERSOVA 0.0000
-2.3385 <s> VILLA 0.0000
-2.3385 <s> VISIT 0.0000
-2.3385 <s> WEST 0.0000
-2.3385 <s> WESTERN 0.0000
-0.3010 AADHA </s> -0.3010
-0.3010 AATH </s> -0.3010
-0.3010 AFTERNOOON </s> -0.3010
-0.3010 AGRICULTURAL </s> -0.3010
-0.3010 ANDHERI </s> -0.3010
-0.3010 AREA </s> -0.3010
-0.3010 BARODA </s> -0.3010
-0.3010 BHK </s> -0.3010
-0.3010 BUNGALOW </s> -0.3010
-0.3010 CAR </s> -0.3010
-0.3010 CARPET </s> -0.3010
-0.3010 CC </s> -0.3010
-0.3010 CENTRAL </s> -0.3010
-0.3010 CHAR </s> -0.3010
-0.3010 CHEH </s> -0.3010
-0.3010 CHEMBUR </s> -0.3010
-0.3010 CONSULTANTS </s> -0.3010
-0.3010 CRORE </s> -0.3010
-0.3010 DAS </s> -0.3010
-0.3010 DHANYAWAD </s> -0.3010
-0.3010 DO </s> -0.3010
-0.3010 EAST </s> -0.3010
-0.3010 EIGHT </s> -0.3010
-0.3010 EIGHTEEN </s> -0.3010
-0.3010 EIGHTY </s> -0.3010
-0.3010 EK </s> -0.3010
-0.3010 ELEVEN </s> -0.3010
-0.3010 ESTATE </s> -0.3010
-0.3010 EVENING </s> -0.3010
-0.3010 FACING </s> -0.3010
-0.3010 FIFTEEN </s> -0.3010
-0.3010 FIFTY </s> -0.3010
-0.3010 FIVE </s> -0.3010
-0.3010 FLAT </s> -0.3010
-0.3010 FLOORS </s> -0.3010
-0.3010 FOLLOWUP </s> -0.3010
-0.3010 FORTY </s> -0.3010
-0.3010 FOUR </s> -0.3010
-0.3010 FOURTEEN </s> -0.3010
-0.3010 GHANTA </s> -0.3010
-0.3010 GOOD </s> -0.3010
-0.3010 GOREGAON </s> -0.3010
-0.3010 GUNTHA </s> -0.3010
-0.3010 GYM </s> -0.3010
-0.3010 HARBOUR </s> -0.3010
-0.3010 HAZAAR </s> -0.3010
-0.3010 IN </s> -0.3010
-0.3010 JODI FLAT 0.0000
-0.3010 KAROD </s> -0.3010
-0.3010 KATRAJ </s> -0.3010
-0.3010 LAAKH </s> -0.3010
-0.3010 LAKHS </s> -0.3010
-0.3010 MANDIR </s> -0.3010
-0.3010 MATUNGA </s> -0.3010
-0.3010 MORNING </s> -0.3010
-0.3010 MOVE IN 0.0000
-0.3010 MULTIPLE </s> -0.3010
-0.3010 NAMASKAR </s> -0.3010
-0.3010 NAMASTE </s> -0.3010
-0.3010 NAPLOT </s> -0.3010
-0.3010 NIGHT </s> -0.3010
-0.3010 NINE </s> -0.3010
-0.3010 NINETEEN </s> -0.3010
-0.3010 NINETY </s> -0.3010
-0.3010 NORTH </s> -0.3010
-0.3010 OC </s> -0.3010
-0.3010 ONE </s> -0.3010
-0.3010 PANCH </s> -0.3010
-0.3010 PARKING </s> -0.3010
-0.3010 PAUNE </s> -0.3010
-0.3010 PER SQUARE 0.0000
-0.3010 PLOT </s> -0.3010
-0.3010 PLOTS </s> -0.3010
-0.3010 POOL </s> -0.3010
-0.3010 PRIVATE </s> -0.3010
-0.3010 PUNE </s> -0.3010
-0.3010 RAM MANDIR 0.0000
-0.3010 RATE </s> -0.3010
-0.3010 READY TO 0.0000
-0.3010 SAAT </s> -0.3010
-0.3010 SAI </s> -0.3010
-0.3010 SALEABLE </s> -0.3010
-0.3010 SAMAY </s> -0.3010
-0.3010 SAVA </s> -0.3010
-0.3010 SCHEDULE </s> -0.3010
-0.3010 SEVEN </s> -0.3010
-0.3010 SEVENTEEN </s> -0.3010
-0.3010 SEVENTY </s> -0.3010
-0.3010 SION </s> -0.3010
-0.3010 SITE </s> -0.3010
-0.3010 SIX </s> -0.3010
-0.3010 SIXTEEN </s> -0.3010
-0.3010 SIXTY </s> -0.3010
-0.3010 SOUTH </s> -0.3010
-0.3010 SQUARE RATE 0.0000
-0.3010 SURAT </s> -0.3010
-0.3010 SWIMMING </s> -0.3010
-0.3010 TEEN </s> -0.3010
-0.3010 TEN </s> -0.3010
-0.3010 THANE </s> -0.3010
-0.3010 THIRTEEN </s> -0.3010
-0.3010 THIRTY </s> -0.3010
-0.3010 THOUSAND </s> -0.3010
-0.3010 THREE </s> -0.3010
-0.3010 TO MOVE 0.0000
-0.3010 TWELVE </s> -0.3010
-0.3010 TWENTY </s> -0.3010
-0.3010 TWO </s> -0.3010
-0.3010 UNDERCONSTRUCTION </s> -0.3010
-0.3010 VADODARA </s> -0.3010
-0.3010 VASHI </s> -0.3010
-0.3010 VERSOVA </s> -0.3010
-0.3010 VILLA </s> -0.3010
-0.3010 VISIT </s> -0.3010
-0.3010 WEST </s> -0.3010
-0.3010 WESTERN </s> -0.3010

\3-grams:
-0.3010 <s> AADHA </s>
-0.3010 <s> AATH </s>
-0.3010 <s> AFTERNOOON </s>
-0.3010 <s> AGRICULTURAL </s>
-0.3010 <s> ANDHERI </s>
-0.3010 <s> AREA </s>
-0.3010 <s> BARODA </s>
-0.3010 <s> BHK </s>
-0.3010 <s> BUNGALOW </s>
-0.3010 <s> CAR </s>
-0.3010 <s> CARPET </s>
-0.3010 <s> CC </s>
-0.3010 <s> CENTRAL </s>
-0.3010 <s> CHAR </s>
-0.3010 <s> CHEH </s>
-0.3010 <s> CHEMBUR </s>
-0.3010 <s> CONSULTANTS </s>
-0.3010 <s> CRORE </s>
-0.3010 <s> DAS </s>
-0.3010 <s> DHANYAWAD </s>
-0.3010 <s> DO </s>
-0.3010 <s> EAST </s>
-0.3010 <s> EIGHT </s>
-0.3010 <s> EIGHTEEN </s>
-0.3010 <s> EIGHTY </s>
-0.3010 <s> EK </s>
-0.3010 <s> ELEVEN </s>
-0.3010 <s> ESTATE </s>
-0.3010 <s> EVENING </s>
-0.3010 <s> FACING </s>
-0.3010 <s> FIFTEEN </s>
-0.3010 <s> FIFTY </s>
-0.3010 <s> FIVE </s>
-0.3010 <s> FLOORS </s>
-0.3010 <s> FOLLOWUP </s>
-0.3010 <s> FORTY </s>
-0.3010 <s> FOUR </s>
-0.3010 <s> FOURTEEN </s>
-0.3010 <s> GHANTA </s>
-0.3010 <s> GOOD </s>
-0.3010 <s> GOREGAON </s>
-0.3010 <s> GUNTHA </s>
-0.3010 <s> GYM </s>
-0.3010 <s> HARBOUR </s>
-0.3010 <s> HAZAAR </s>
-0.3010 <s> JODI FLAT
-0.3010 <s> KAROD </s>
-0.3010 <s> KATRAJ </s>
-0.3010 <s> LAAKH </s>
-0.3010 <s> LAKHS </s>
-0.3010 <s> MATUNGA </s>
-0.3010 <s> MORNING </s>
-0.3010 <s> MULTIPLE </s>
-0.3010 <s> NAMASKAR </s>
-0.3010 <s> NAMASTE </s>
-0.3010 <s> NAPLOT </s>
-0.3010 <s> NIGHT </s>
-0.3010 <s> NINE </s>
-0.3010 <s> NINETEEN </s>
-0.3010 <s> NINETY </s>
-0.3010 <s> NORTH </s>
-0.3010 <s> OC </s>
-0.3010 <s> ONE </s>
-0.3010 <s> PANCH </s>
-0.3010 <s> PARKING </s>
-0.3010 <s> PAUNE </s>
-0.3010 <s> PER SQUARE
-0.3010 <s> PLOT </s>
-0.3010 <s> PLOTS </s>
-0.3010 <s> POOL </s>
-0.3010 <s> PRIVATE </s>
-0.3010 <s> PUNE </s>
-0.3010 <s> RAM MANDIR
-0.3010 <s> READY TO
-0.3010 <s> SAAT </s>
-0.3010 <s> SAI </s>
-0.3010 <s> SALEABLE </s>
-0.3010 <s> SAMAY </s>
-0.3010 <s> SAVA </s>
-0.3010 <s> SCHEDULE </s>
-0.3010 <s> SEVEN </s>
-0.3010 <s> SEVENTEEN </s>
-0.3010 <s> SEVENTY </s>
-0.3010 <s> SION </s>
-0.3010 <s> SITE </s>
-0.3010 <s> SIX </s>
-0.3010 <s> SIXTEEN </s>
-0.3010 <s> SIXTY </s>
-0.3010 <s> SOUTH </s>
-0.3010 <s> SURAT </s>
-0.3010 <s> SWIMMING </s>
-0.3010 <s> TEEN </s>
-0.3010 <s> TEN </s>
-0.3010 <s> THANE </s>
-0.3010 <s> THIRTEEN </s>
-0.3010 <s> THIRTY </s>
-0.3010 <s> THOUSAND </s>
-0.3010 <s> THREE </s>
-0.3010 <s> TWELVE </s>
-0.3010 <s> TWENTY </s>
-0.3010 <s> TWO </s>
-0.3010 <s> UNDERCONSTRUCTION </s>
-0.3010 <s> VADODARA </s>
-0.3010 <s> VASHI </s>
-0.3010 <s> VERSOVA </s>
-0.3010 <s> VILLA </s>
-0.3010 <s> VISIT </s>
-0.3010 <s> WEST </s>
-0.3010 <s> WESTERN </s>
-0.3010 JODI FLAT </s>
-0.3010 MOVE IN </s>
-0.3010 PER SQUARE RATE
-0.3010 RAM MANDIR </s>
-0.3010 READY TO MOVE
-0.3010 SQUARE RATE </s>
-0.3010 TO MOVE IN

\end\
